<?xml version="1.0"?>
<opencv_storage>
<cascade>
  <stageType>BOOST</stageType>
  <featureType>HAAR</featureType>
  <height>30</height>
  <width>48</width>
  <stageParams>
    <boostType>GAB</boostType>
    <minHitRate>9.9500000476837158e-01</minHitRate>
    <maxFalseAlarm>5.0000000000000000e-01</maxFalseAlarm>
    <weightTrimRate>9.4999999999999996e-01</weightTrimRate>
    <maxDepth>1</maxDepth>
    <maxWeakCount>100</maxWeakCount></stageParams>
  <featureParams>
    <maxCatCount>0</maxCatCount>
    <featSize>1</featSize>
    <mode>BASIC</mode></featureParams>
  <stageNum>18</stageNum>
  <stages>
    <!-- stage 0 -->
    <_>
      <maxWeakCount>3</maxWeakCount>
      <stageThreshold>-3.0360573530197144e-01</stageThreshold>
      <weakClassifiers>
        <_>
          <internalNodes>
            0 -1 45 -1.0352604091167450e-02</internalNodes>
          <leafValues>
            6.9217687845230103e-01 -9.6913582086563110e-01</leafValues></_>
        <_>
          <internalNodes>
            0 -1 113 -5.6577171199023724e-04</internalNodes>
          <leafValues>
            3.8181757926940918e-01 -9.2449903488159180e-01</leafValues></_>
        <_>
          <internalNodes>
            0 -1 117 7.1458215825259686e-04</internalNodes>
          <leafValues>
            2.8371247649192810e-01 -9.7229045629501343e-01</leafValues></_></weakClassifiers></_>
    <!-- stage 1 -->
    <_>
      <maxWeakCount>5</maxWeakCount>
      <stageThreshold>9.1313021257519722e-03</stageThreshold>
      <weakClassifiers>
        <_>
          <internalNodes>
            0 -1 80 -3.0602023471146822e-03</internalNodes>
          <leafValues>
            -9.0654206275939941e-01 5.3965783119201660e-01</leafValues></_>
        <_>
          <internalNodes>
            0 -1 98 -3.4958170726895332e-03</internalNodes>
          <leafValues>
            3.3065789937973022e-01 -8.1190985441207886e-01</leafValues></_>
        <_>
          <internalNodes>
            0 -1 68 -5.4978937841951847e-03</internalNodes>
          <leafValues>
            -9.4181340932846069e-01 2.0885863900184631e-01</leafValues></_>
        <_>
          <internalNodes>
            0 -1 82 -1.5690480358898640e-03</internalNodes>
          <leafValues>
            -8.5883593559265137e-01 2.1290075778961182e-01</leafValues></_>
        <_>
          <internalNodes>
            0 -1 39 -1.0622722096741199e-02</internalNodes>
          <leafValues>
            1.6325607895851135e-01 -9.5504456758499146e-01</leafValues></_></weakClassifiers></_>
    <!-- stage 2 -->
    <_>
      <maxWeakCount>8</maxWeakCount>
      <stageThreshold>-6.2479841709136963e-01</stageThreshold>
      <weakClassifiers>
        <_>
          <internalNodes>
            0 -1 108 1.4176599215716124e-03</internalNodes>
          <leafValues>
            5.3042119741439819e-01 -8.2568806409835815e-01</leafValues></_>
        <_>
          <internalNodes>
            0 -1 41 5.3384099155664444e-03</internalNodes>
          <leafValues>
            2.4366380274295807e-01 -9.1574746370315552e-01</leafValues></_>
        <_>
          <internalNodes>
            0 -1 61 9.0238433331251144e-03</internalNodes>
          <leafValues>
            -3.2378149032592773e-01 7.2876906394958496e-01</leafValues></_>
        <_>
          <internalNodes>
            0 -1 118 1.2142790481448174e-02</internalNodes>
          <leafValues>
            -5.6395208835601807e-01 4.2134442925453186e-01</leafValues></_>
        <_>
          <internalNodes>
            0 -1 50 -3.5590990446507931e-03</internalNodes>
          <leafValues>
            7.2086393833160400e-01 -2.6094874739646912e-01</leafValues></_>
        <_>
          <internalNodes>
            0 -1 13 -3.6882381886243820e-02</internalNodes>
          <leafValues>
            -9.1009467840194702e-01 2.5154733657836914e-01</leafValues></_>
        <_>
          <internalNodes>
            0 -1 49 -1.7299123108386993e-02</internalNodes>
          <leafValues>
            5.6932973861694336e-01 -3.5594215989112854e-01</leafValues></_>
        <_>
          <internalNodes>
            0 -1 122 2.7002570277545601e-05</internalNodes>
          <leafValues>
            2.2500650584697723e-01 -7.9009795188903809e-01</leafValues></_></weakClassifiers></_>
    <!-- stage 3 -->
    <_>
      <maxWeakCount>7</maxWeakCount>
      <stageThreshold>-4.0848043560981750e-01</stageThreshold>
      <weakClassifiers>
        <_>
          <internalNodes>
            0 -1 53 -4.8186164349317551e-03</internalNodes>
          <leafValues>
            -8.0310881137847900e-01 5.0114768743515015e-01</leafValues></_>
        <_>
          <internalNodes>
            0 -1 56 2.4249693378806114e-02</internalNodes>
          <leafValues>
            -2.4607881903648376e-01 7.3029422760009766e-01</leafValues></_>
        <_>
          <internalNodes>
            0 -1 62 2.3233808577060699e-02</internalNodes>
          <leafValues>
            -2.5118386745452881e-01 8.4169018268585205e-01</leafValues></_>
        <_>
          <internalNodes>
            0 -1 99 -2.3144104052335024e-03</internalNodes>
          <leafValues>
            -8.1064623594284058e-01 2.9427498579025269e-01</leafValues></_>
        <_>
          <internalNodes>
            0 -1 18 5.8952663093805313e-03</internalNodes>
          <leafValues>
            -3.0351692438125610e-01 7.2044110298156738e-01</leafValues></_>
        <_>
          <internalNodes>
            0 -1 26 -3.7021827884018421e-03</internalNodes>
          <leafValues>
            6.7073178291320801e-01 -3.2226619124412537e-01</leafValues></_>
        <_>
          <internalNodes>
            0 -1 112 -1.6811206005513668e-03</internalNodes>
          <leafValues>
            2.4702610075473785e-01 -8.9894688129425049e-01</leafValues></_></weakClassifiers></_>
    <!-- stage 4 -->
    <_>
      <maxWeakCount>8</maxWeakCount>
      <stageThreshold>-9.0496098995208740e-01</stageThreshold>
      <weakClassifiers>
        <_>
          <internalNodes>
            0 -1 103 -3.9958819746971130e-02</internalNodes>
          <leafValues>
            -7.7528089284896851e-01 4.8260211944580078e-01</leafValues></_>
        <_>
          <internalNodes>
            0 -1 86 5.0632366910576820e-03</internalNodes>
          <leafValues>
            2.2294576466083527e-01 -8.6243164539337158e-01</leafValues></_>
        <_>
          <internalNodes>
            0 -1 132 1.8843593075871468e-02</internalNodes>
          <leafValues>
            -3.2349652051925659e-01 5.9378486871719360e-01</leafValues></_>
        <_>
          <internalNodes>
            0 -1 121 -1.0552708990871906e-03</internalNodes>
          <leafValues>
            4.5145654678344727e-01 -4.9496328830718994e-01</leafValues></_>
        <_>
          <internalNodes>
            0 -1 59 -3.1010727398097515e-03</internalNodes>
          <leafValues>
            6.7845159769058228e-01 -2.8096437454223633e-01</leafValues></_>
        <_>
          <internalNodes>
            0 -1 71 -2.8221256798133254e-04</internalNodes>
          <leafValues>
            -7.3419266939163208e-01 2.6643222570419312e-01</leafValues></_>
        <_>
          <internalNodes>
            0 -1 17 1.0961201973259449e-02</internalNodes>
          <leafValues>
            -4.2729920148849487e-01 4.7676476836204529e-01</leafValues></_>
        <_>
          <internalNodes>
            0 -1 5 2.4204041808843613e-02</internalNodes>
          <leafValues>
            -2.1126011013984680e-01 8.4441339969635010e-01</leafValues></_></weakClassifiers></_>
    <!-- stage 5 -->
    <_>
      <maxWeakCount>7</maxWeakCount>
      <stageThreshold>-7.2460716962814331e-01</stageThreshold>
      <weakClassifiers>
        <_>
          <internalNodes>
            0 -1 91 9.5532299019396305e-04</internalNodes>
          <leafValues>
            5.1740509271621704e-01 -6.5254235267639160e-01</leafValues></_>
        <_>
          <internalNodes>
            0 -1 105 -2.7566645294427872e-02</internalNodes>
          <leafValues>
            7.8160989284515381e-01 -2.0304654538631439e-01</leafValues></_>
        <_>
          <internalNodes>
            0 -1 6 5.2332326769828796e-02</internalNodes>
          <leafValues>
            -3.5710996389389038e-01 5.7275068759918213e-01</leafValues></_>
        <_>
          <internalNodes>
            0 -1 7 4.7540469095110893e-03</internalNodes>
          <leafValues>
            -2.9267111420631409e-01 5.9575766324996948e-01</leafValues></_>
        <_>
          <internalNodes>
            0 -1 0 -6.2105939723551273e-03</internalNodes>
          <leafValues>
            6.9719523191452026e-01 -2.9611128568649292e-01</leafValues></_>
        <_>
          <internalNodes>
            0 -1 97 4.7936168266460299e-04</internalNodes>
          <leafValues>
            -4.0274140238761902e-01 4.3708986043930054e-01</leafValues></_>
        <_>
          <internalNodes>
            0 -1 57 4.1537191718816757e-02</internalNodes>
          <leafValues>
            -3.4487214684486389e-01 6.1261588335037231e-01</leafValues></_></weakClassifiers></_>
    <!-- stage 6 -->
    <_>
      <maxWeakCount>8</maxWeakCount>
      <stageThreshold>-6.3905978202819824e-01</stageThreshold>
      <weakClassifiers>
        <_>
          <internalNodes>
            0 -1 124 -1.8122262554243207e-03</internalNodes>
          <leafValues>
            -9.0666669607162476e-01 4.7111111879348755e-01</leafValues></_>
        <_>
          <internalNodes>
            0 -1 79 2.9444124549627304e-02</internalNodes>
          <leafValues>
            2.2923271358013153e-01 -9.5799183845520020e-01</leafValues></_>
        <_>
          <internalNodes>
            0 -1 10 -5.3723089396953583e-02</internalNodes>
          <leafValues>
            7.2628295421600342e-01 -3.2068276405334473e-01</leafValues></_>
        <_>
          <internalNodes>
            0 -1 84 1.5050691552460194e-02</internalNodes>
          <leafValues>
            -2.9757103323936462e-01 5.8036816120147705e-01</leafValues></_>
        <_>
          <internalNodes>
            0 -1 131 1.7712580040097237e-02</internalNodes>
          <leafValues>
            -2.3530687391757965e-01 7.5162702798843384e-01</leafValues></_>
        <_>
          <internalNodes>
            0 -1 107 8.9482199400663376e-03</internalNodes>
          <leafValues>
            -3.8986793160438538e-01 4.5645543932914734e-01</leafValues></_>
        <_>
          <internalNodes>
            0 -1 119 -1.2245040852576494e-03</internalNodes>
          <leafValues>
            2.3546731472015381e-01 -6.9029062986373901e-01</leafValues></_>
        <_>
          <internalNodes>
            0 -1 93 -7.0067783817648888e-03</internalNodes>
          <leafValues>
            -8.0335003137588501e-01 1.6839627921581268e-01</leafValues></_></weakClassifiers></_>
    <!-- stage 7 -->
    <_>
      <maxWeakCount>9</maxWeakCount>
      <stageThreshold>-7.3284137248992920e-01</stageThreshold>
      <weakClassifiers>
        <_>
          <internalNodes>
            0 -1 116 5.0380607717670500e-05</internalNodes>
          <leafValues>
            4.6666666865348816e-01 -8.6666667461395264e-01</leafValues></_>
        <_>
          <internalNodes>
            0 -1 95 1.8024314194917679e-02</internalNodes>
          <leafValues>
            -1.8712276220321655e-01 7.7410703897476196e-01</leafValues></_>
        <_>
          <internalNodes>
            0 -1 4 5.8385275304317474e-02</internalNodes>
          <leafValues>
            -2.6899176836013794e-01 7.9491460323333740e-01</leafValues></_>
        <_>
          <internalNodes>
            0 -1 76 3.7349545164033771e-04</internalNodes>
          <leafValues>
            2.5746116042137146e-01 -8.5679316520690918e-01</leafValues></_>
        <_>
          <internalNodes>
            0 -1 8 -3.0734110623598099e-02</internalNodes>
          <leafValues>
            7.7488511800765991e-01 -2.4860705435276031e-01</leafValues></_>
        <_>
          <internalNodes>
            0 -1 27 2.2158667445182800e-02</internalNodes>
          <leafValues>
            -4.2720657587051392e-01 4.4901570677757263e-01</leafValues></_>
        <_>
          <internalNodes>
            0 -1 64 8.4183542057871819e-03</internalNodes>
          <leafValues>
            1.9512936472892761e-01 -9.1818237304687500e-01</leafValues></_>
        <_>
          <internalNodes>
            0 -1 83 -3.7529453402385116e-04</internalNodes>
          <leafValues>
            3.5722398757934570e-01 -4.7388285398483276e-01</leafValues></_>
        <_>
          <internalNodes>
            0 -1 125 5.6023821234703064e-03</internalNodes>
          <leafValues>
            1.9080191850662231e-01 -8.0201560258865356e-01</leafValues></_></weakClassifiers></_>
    <!-- stage 8 -->
    <_>
      <maxWeakCount>6</maxWeakCount>
      <stageThreshold>-3.5481789708137512e-01</stageThreshold>
      <weakClassifiers>
        <_>
          <internalNodes>
            0 -1 87 -3.4190062433481216e-03</internalNodes>
          <leafValues>
            -7.8048777580261230e-01 4.7005987167358398e-01</leafValues></_>
        <_>
          <internalNodes>
            0 -1 38 -2.9199233278632164e-02</internalNodes>
          <leafValues>
            6.2996137142181396e-01 -2.6386290788650513e-01</leafValues></_>
        <_>
          <internalNodes>
            0 -1 92 6.1484856996685266e-04</internalNodes>
          <leafValues>
            3.8168019056320190e-01 -5.2753674983978271e-01</leafValues></_>
        <_>
          <internalNodes>
            0 -1 104 -4.0755444206297398e-04</internalNodes>
          <leafValues>
            -8.5187029838562012e-01 1.7853295803070068e-01</leafValues></_>
        <_>
          <internalNodes>
            0 -1 32 7.1227340959012508e-03</internalNodes>
          <leafValues>
            -4.4461202621459961e-01 4.2331501841545105e-01</leafValues></_>
        <_>
          <internalNodes>
            0 -1 24 -3.5646103322505951e-02</internalNodes>
          <leafValues>
            7.1051067113876343e-01 -2.6340997219085693e-01</leafValues></_></weakClassifiers></_>
    <!-- stage 9 -->
    <_>
      <maxWeakCount>9</maxWeakCount>
      <stageThreshold>-4.6137312054634094e-01</stageThreshold>
      <weakClassifiers>
        <_>
          <internalNodes>
            0 -1 101 1.5759882517158985e-03</internalNodes>
          <leafValues>
            -4.2995840311050415e-02 6.8164312839508057e-01</leafValues></_>
        <_>
          <internalNodes>
            0 -1 126 6.5077068284153938e-03</internalNodes>
          <leafValues>
            -2.2618995606899261e-01 6.3630700111389160e-01</leafValues></_>
        <_>
          <internalNodes>
            0 -1 114 -7.5992560014128685e-03</internalNodes>
          <leafValues>
            5.1047790050506592e-01 -2.9887381196022034e-01</leafValues></_>
        <_>
          <internalNodes>
            0 -1 3 3.6377951502799988e-02</internalNodes>
          <leafValues>
            -3.8455143570899963e-01 5.7746058702468872e-01</leafValues></_>
        <_>
          <internalNodes>
            0 -1 2 -5.2590385079383850e-02</internalNodes>
          <leafValues>
            8.7326151132583618e-01 -1.8919131159782410e-01</leafValues></_>
        <_>
          <internalNodes>
            0 -1 96 4.1665574535727501e-03</internalNodes>
          <leafValues>
            -2.8449860215187073e-01 6.2159711122512817e-01</leafValues></_>
        <_>
          <internalNodes>
            0 -1 78 -1.3237176463007927e-02</internalNodes>
          <leafValues>
            7.0454084873199463e-01 -1.9384731352329254e-01</leafValues></_>
        <_>
          <internalNodes>
            0 -1 14 1.2735381722450256e-02</internalNodes>
          <leafValues>
            -5.6575524806976318e-01 3.0843299627304077e-01</leafValues></_>
        <_>
          <internalNodes>
            0 -1 33 6.5295794047415257e-03</internalNodes>
          <leafValues>
            1.9053971767425537e-01 -8.2466495037078857e-01</leafValues></_></weakClassifiers></_>
    <!-- stage 10 -->
    <_>
      <maxWeakCount>9</maxWeakCount>
      <stageThreshold>-4.3088817596435547e-01</stageThreshold>
      <weakClassifiers>
        <_>
          <internalNodes>
            0 -1 94 -2.2702259011566639e-03</internalNodes>
          <leafValues>
            5.7477480173110962e-01 -3.5384616255760193e-01</leafValues></_>
        <_>
          <internalNodes>
            0 -1 66 -6.0393929481506348e-02</internalNodes>
          <leafValues>
            -8.2296347618103027e-01 2.1261531114578247e-01</leafValues></_>
        <_>
          <internalNodes>
            0 -1 77 -8.0451369285583496e-03</internalNodes>
          <leafValues>
            2.1593835949897766e-01 -6.8691247701644897e-01</leafValues></_>
        <_>
          <internalNodes>
            0 -1 73 4.6446436317637563e-04</internalNodes>
          <leafValues>
            1.4741337299346924e-01 -7.6150184869766235e-01</leafValues></_>
        <_>
          <internalNodes>
            0 -1 9 5.9916106984019279e-03</internalNodes>
          <leafValues>
            -2.0211575925350189e-01 7.5444781780242920e-01</leafValues></_>
        <_>
          <internalNodes>
            0 -1 90 2.9244249162729830e-05</internalNodes>
          <leafValues>
            2.1854957938194275e-01 -6.0239708423614502e-01</leafValues></_>
        <_>
          <internalNodes>
            0 -1 40 -3.6243405193090439e-03</internalNodes>
          <leafValues>
            -7.6968878507614136e-01 2.3314850032329559e-01</leafValues></_>
        <_>
          <internalNodes>
            0 -1 19 -3.0547804199159145e-03</internalNodes>
          <leafValues>
            4.0983334183692932e-01 -3.7932717800140381e-01</leafValues></_>
        <_>
          <internalNodes>
            0 -1 11 1.0593056678771973e-01</internalNodes>
          <leafValues>
            -2.0262959599494934e-01 6.4121651649475098e-01</leafValues></_></weakClassifiers></_>
    <!-- stage 11 -->
    <_>
      <maxWeakCount>8</maxWeakCount>
      <stageThreshold>-4.7021245956420898e-01</stageThreshold>
      <weakClassifiers>
        <_>
          <internalNodes>
            0 -1 52 4.0777601301670074e-02</internalNodes>
          <leafValues>
            4.7988077998161316e-01 -9.1139239072799683e-01</leafValues></_>
        <_>
          <internalNodes>
            0 -1 74 -1.6721700085327029e-03</internalNodes>
          <leafValues>
            -8.1325745582580566e-01 2.4444614350795746e-01</leafValues></_>
        <_>
          <internalNodes>
            0 -1 63 -7.3198765516281128e-02</internalNodes>
          <leafValues>
            6.9588214159011841e-01 -2.9627782106399536e-01</leafValues></_>
        <_>
          <internalNodes>
            0 -1 28 -1.6681738197803497e-02</internalNodes>
          <leafValues>
            6.0712385177612305e-01 -2.1468150615692139e-01</leafValues></_>
        <_>
          <internalNodes>
            0 -1 100 1.4701060717925429e-03</internalNodes>
          <leafValues>
            -5.2618259191513062e-01 3.5657024383544922e-01</leafValues></_>
        <_>
          <internalNodes>
            0 -1 81 -3.3838566392660141e-02</internalNodes>
          <leafValues>
            -7.9576355218887329e-01 2.1123565733432770e-01</leafValues></_>
        <_>
          <internalNodes>
            0 -1 109 1.7868381110019982e-04</internalNodes>
          <leafValues>
            2.4416077136993408e-01 -5.7642596960067749e-01</leafValues></_>
        <_>
          <internalNodes>
            0 -1 51 1.7894245684146881e-03</internalNodes>
          <leafValues>
            -4.6831673383712769e-01 3.9420527219772339e-01</leafValues></_></weakClassifiers></_>
    <!-- stage 12 -->
    <_>
      <maxWeakCount>8</maxWeakCount>
      <stageThreshold>-5.4811751842498779e-01</stageThreshold>
      <weakClassifiers>
        <_>
          <internalNodes>
            0 -1 23 -2.7581226080656052e-02</internalNodes>
          <leafValues>
            -7.7499997615814209e-01 4.6567162871360779e-01</leafValues></_>
        <_>
          <internalNodes>
            0 -1 58 -4.6716250479221344e-02</internalNodes>
          <leafValues>
            7.1753686666488647e-01 -2.0338276028633118e-01</leafValues></_>
        <_>
          <internalNodes>
            0 -1 102 -1.3546859845519066e-03</internalNodes>
          <leafValues>
            2.4517776072025299e-01 -7.7459883689880371e-01</leafValues></_>
        <_>
          <internalNodes>
            0 -1 110 1.5329049900174141e-02</internalNodes>
          <leafValues>
            -4.2800307273864746e-01 3.4448483586311340e-01</leafValues></_>
        <_>
          <internalNodes>
            0 -1 20 8.0986440181732178e-02</internalNodes>
          <leafValues>
            -3.8504692912101746e-01 5.2530151605606079e-01</leafValues></_>
        <_>
          <internalNodes>
            0 -1 48 -1.3349759392440319e-03</internalNodes>
          <leafValues>
            -4.7977101802825928e-01 3.8066208362579346e-01</leafValues></_>
        <_>
          <internalNodes>
            0 -1 127 -5.3598789963871241e-04</internalNodes>
          <leafValues>
            4.6369215846061707e-01 -3.3153307437896729e-01</leafValues></_>
        <_>
          <internalNodes>
            0 -1 70 6.4235515892505646e-03</internalNodes>
          <leafValues>
            1.7652057111263275e-01 -8.0758982896804810e-01</leafValues></_></weakClassifiers></_>
    <!-- stage 13 -->
    <_>
      <maxWeakCount>8</maxWeakCount>
      <stageThreshold>-5.1442629098892212e-01</stageThreshold>
      <weakClassifiers>
        <_>
          <internalNodes>
            0 -1 67 -6.8998802453279495e-03</internalNodes>
          <leafValues>
            -8.2550334930419922e-01 4.6113988757133484e-01</leafValues></_>
        <_>
          <internalNodes>
            0 -1 25 1.0155607014894485e-02</internalNodes>
          <leafValues>
            -2.2945708036422729e-01 7.0828688144683838e-01</leafValues></_>
        <_>
          <internalNodes>
            0 -1 123 -7.4428571388125420e-03</internalNodes>
          <leafValues>
            5.5058461427688599e-01 -3.4227824211120605e-01</leafValues></_>
        <_>
          <internalNodes>
            0 -1 35 -2.3944951593875885e-02</internalNodes>
          <leafValues>
            5.1546871662139893e-01 -3.7090486288070679e-01</leafValues></_>
        <_>
          <internalNodes>
            0 -1 65 5.9034149162471294e-03</internalNodes>
          <leafValues>
            -3.1773298978805542e-01 6.0945886373519897e-01</leafValues></_>
        <_>
          <internalNodes>
            0 -1 31 -1.9614968914538622e-03</internalNodes>
          <leafValues>
            4.8471164703369141e-01 -3.0721560120582581e-01</leafValues></_>
        <_>
          <internalNodes>
            0 -1 89 -4.5124540338292718e-04</internalNodes>
          <leafValues>
            -4.6161726117134094e-01 3.9077940583229065e-01</leafValues></_>
        <_>
          <internalNodes>
            0 -1 115 7.9147386713884771e-05</internalNodes>
          <leafValues>
            2.6171264052391052e-01 -5.5556684732437134e-01</leafValues></_></weakClassifiers></_>
    <!-- stage 14 -->
    <_>
      <maxWeakCount>8</maxWeakCount>
      <stageThreshold>-2.5569388270378113e-01</stageThreshold>
      <weakClassifiers>
        <_>
          <internalNodes>
            0 -1 88 2.8423555195331573e-02</internalNodes>
          <leafValues>
            4.2979943752288818e-01 -9.6153843402862549e-01</leafValues></_>
        <_>
          <internalNodes>
            0 -1 16 3.6279041320085526e-02</internalNodes>
          <leafValues>
            -2.1564614772796631e-01 6.2982439994812012e-01</leafValues></_>
        <_>
          <internalNodes>
            0 -1 34 -5.3604701533913612e-03</internalNodes>
          <leafValues>
            5.3883761167526245e-01 -3.5817775130271912e-01</leafValues></_>
        <_>
          <internalNodes>
            0 -1 22 -9.6316732466220856e-02</internalNodes>
          <leafValues>
            8.6087375879287720e-01 -1.9787968695163727e-01</leafValues></_>
        <_>
          <internalNodes>
            0 -1 30 -2.1680220961570740e-02</internalNodes>
          <leafValues>
            5.6569713354110718e-01 -2.6067087054252625e-01</leafValues></_>
        <_>
          <internalNodes>
            0 -1 54 -1.0180025128647685e-03</internalNodes>
          <leafValues>
            -6.2938761711120605e-01 2.3218870162963867e-01</leafValues></_>
        <_>
          <internalNodes>
            0 -1 129 -1.0188111104071140e-02</internalNodes>
          <leafValues>
            4.2483568191528320e-01 -3.4692546725273132e-01</leafValues></_>
        <_>
          <internalNodes>
            0 -1 133 -1.2939773499965668e-02</internalNodes>
          <leafValues>
            5.8931481838226318e-01 -2.9403749108314514e-01</leafValues></_></weakClassifiers></_>
    <!-- stage 15 -->
    <_>
      <maxWeakCount>8</maxWeakCount>
      <stageThreshold>-4.9489599466323853e-01</stageThreshold>
      <weakClassifiers>
        <_>
          <internalNodes>
            0 -1 128 -3.1473266426473856e-03</internalNodes>
          <leafValues>
            -8.0000001192092896e-01 4.7819548845291138e-01</leafValues></_>
        <_>
          <internalNodes>
            0 -1 106 -8.4380293264985085e-03</internalNodes>
          <leafValues>
            6.8647867441177368e-01 -2.1925108134746552e-01</leafValues></_>
        <_>
          <internalNodes>
            0 -1 12 1.3526301831007004e-02</internalNodes>
          <leafValues>
            -3.5136085748672485e-01 5.1949691772460938e-01</leafValues></_>
        <_>
          <internalNodes>
            0 -1 111 2.5906409136950970e-03</internalNodes>
          <leafValues>
            -2.4176827073097229e-01 6.2914359569549561e-01</leafValues></_>
        <_>
          <internalNodes>
            0 -1 69 1.5946970088407397e-03</internalNodes>
          <leafValues>
            2.3511599004268646e-01 -6.9858753681182861e-01</leafValues></_>
        <_>
          <internalNodes>
            0 -1 120 -1.2234889436513186e-03</internalNodes>
          <leafValues>
            6.6061270236968994e-01 -2.3874814808368683e-01</leafValues></_>
        <_>
          <internalNodes>
            0 -1 44 -1.1504678986966610e-02</internalNodes>
          <leafValues>
            6.2538027763366699e-01 -2.0291005074977875e-01</leafValues></_>
        <_>
          <internalNodes>
            0 -1 21 -6.2031866982579231e-03</internalNodes>
          <leafValues>
            -4.7279930114746094e-01 4.5316860079765320e-01</leafValues></_></weakClassifiers></_>
    <!-- stage 16 -->
    <_>
      <maxWeakCount>7</maxWeakCount>
      <stageThreshold>-3.8749122619628906e-01</stageThreshold>
      <weakClassifiers>
        <_>
          <internalNodes>
            0 -1 130 9.0131198521703482e-04</internalNodes>
          <leafValues>
            5.4460495710372925e-01 -4.3653249740600586e-01</leafValues></_>
        <_>
          <internalNodes>
            0 -1 75 -2.2734510712325573e-03</internalNodes>
          <leafValues>
            -9.6051621437072754e-01 2.0428620278835297e-01</leafValues></_>
        <_>
          <internalNodes>
            0 -1 42 -3.4646326676011086e-03</internalNodes>
          <leafValues>
            7.0060771703720093e-01 -2.5421074032783508e-01</leafValues></_>
        <_>
          <internalNodes>
            0 -1 15 -3.6828115582466125e-02</internalNodes>
          <leafValues>
            4.3970352411270142e-01 -3.4862053394317627e-01</leafValues></_>
        <_>
          <internalNodes>
            0 -1 46 -1.0879642795771360e-03</internalNodes>
          <leafValues>
            1.8703989684581757e-01 -8.7082439661026001e-01</leafValues></_>
        <_>
          <internalNodes>
            0 -1 1 -4.4420190155506134e-02</internalNodes>
          <leafValues>
            7.1760249137878418e-01 -2.6318863034248352e-01</leafValues></_>
        <_>
          <internalNodes>
            0 -1 47 3.4977219998836517e-02</internalNodes>
          <leafValues>
            -2.2745321691036224e-01 7.9327535629272461e-01</leafValues></_></weakClassifiers></_>
    <!-- stage 17 -->
    <_>
      <maxWeakCount>8</maxWeakCount>
      <stageThreshold>-8.7784594297409058e-01</stageThreshold>
      <weakClassifiers>
        <_>
          <internalNodes>
            0 -1 43 2.5294290389865637e-03</internalNodes>
          <leafValues>
            5.0151973962783813e-01 -8.6956518888473511e-01</leafValues></_>
        <_>
          <internalNodes>
            0 -1 29 -3.7175759673118591e-02</internalNodes>
          <leafValues>
            6.9611954689025879e-01 -2.9089716076850891e-01</leafValues></_>
        <_>
          <internalNodes>
            0 -1 72 8.9792755898088217e-04</internalNodes>
          <leafValues>
            3.5470938682556152e-01 -5.9267139434814453e-01</leafValues></_>
        <_>
          <internalNodes>
            0 -1 36 8.4782904013991356e-03</internalNodes>
          <leafValues>
            2.9571899771690369e-01 -8.2038819789886475e-01</leafValues></_>
        <_>
          <internalNodes>
            0 -1 55 -9.5103355124592781e-03</internalNodes>
          <leafValues>
            7.2785317897796631e-01 -3.8069984316825867e-01</leafValues></_>
        <_>
          <internalNodes>
            0 -1 85 8.5023399442434311e-03</internalNodes>
          <leafValues>
            -3.6295053362846375e-01 6.4785587787628174e-01</leafValues></_>
        <_>
          <internalNodes>
            0 -1 37 3.6875909427180886e-04</internalNodes>
          <leafValues>
            -3.7869647145271301e-01 5.6792211532592773e-01</leafValues></_>
        <_>
          <internalNodes>
            0 -1 60 1.0945850517600775e-03</internalNodes>
          <leafValues>
            3.3168548345565796e-01 -6.7997568845748901e-01</leafValues></_></weakClassifiers></_></stages>
  <features>
    <_>
      <rects>
        <_>
          0 0 40 2 -1.</_>
        <_>
          0 0 20 1 2.</_>
        <_>
          20 1 20 1 2.</_></rects>
      <tilted>0</tilted></_>
    <_>
      <rects>
        <_>
          0 1 33 17 -1.</_>
        <_>
          11 1 11 17 3.</_></rects>
      <tilted>0</tilted></_>
    <_>
      <rects>
        <_>
          0 3 10 23 -1.</_>
        <_>
          5 3 5 23 2.</_></rects>
      <tilted>0</tilted></_>
    <_>
      <rects>
        <_>
          0 8 10 14 -1.</_>
        <_>
          5 8 5 14 2.</_></rects>
      <tilted>0</tilted></_>
    <_>
      <rects>
        <_>
          0 9 10 15 -1.</_>
        <_>
          5 9 5 15 2.</_></rects>
      <tilted>0</tilted></_>
    <_>
      <rects>
        <_>
          0 9 12 5 -1.</_>
        <_>
          6 9 6 5 2.</_></rects>
      <tilted>0</tilted></_>
    <_>
      <rects>
        <_>
          0 9 24 14 -1.</_>
        <_>
          8 9 8 14 3.</_></rects>
      <tilted>0</tilted></_>
    <_>
      <rects>
        <_>
          1 28 38 2 -1.</_>
        <_>
          1 28 19 1 2.</_>
        <_>
          20 29 19 1 2.</_></rects>
      <tilted>0</tilted></_>
    <_>
      <rects>
        <_>
          2 7 8 18 -1.</_>
        <_>
          6 7 4 18 2.</_></rects>
      <tilted>0</tilted></_>
    <_>
      <rects>
        <_>
          3 0 42 2 -1.</_>
        <_>
          3 0 21 1 2.</_>
        <_>
          24 1 21 1 2.</_></rects>
      <tilted>0</tilted></_>
    <_>
      <rects>
        <_>
          3 0 32 8 -1.</_>
        <_>
          3 4 32 4 2.</_></rects>
      <tilted>0</tilted></_>
    <_>
      <rects>
        <_>
          3 0 43 14 -1.</_>
        <_>
          3 7 43 7 2.</_></rects>
      <tilted>0</tilted></_>
    <_>
      <rects>
        <_>
          4 0 12 12 -1.</_>
        <_>
          4 6 12 6 2.</_></rects>
      <tilted>0</tilted></_>
    <_>
      <rects>
        <_>
          4 7 38 18 -1.</_>
        <_>
          4 7 19 9 2.</_>
        <_>
          23 16 19 9 2.</_></rects>
      <tilted>0</tilted></_>
    <_>
      <rects>
        <_>
          4 9 36 8 -1.</_>
        <_>
          16 9 12 8 3.</_></rects>
      <tilted>0</tilted></_>
    <_>
      <rects>
        <_>
          4 12 32 16 -1.</_>
        <_>
          4 20 32 8 2.</_></rects>
      <tilted>0</tilted></_>
    <_>
      <rects>
        <_>
          4 22 29 8 -1.</_>
        <_>
          4 26 29 4 2.</_></rects>
      <tilted>0</tilted></_>
    <_>
      <rects>
        <_>
          5 26 36 4 -1.</_>
        <_>
          5 26 18 2 2.</_>
        <_>
          23 28 18 2 2.</_></rects>
      <tilted>0</tilted></_>
    <_>
      <rects>
        <_>
          5 28 32 2 -1.</_>
        <_>
          5 28 16 1 2.</_>
        <_>
          21 29 16 1 2.</_></rects>
      <tilted>0</tilted></_>
    <_>
      <rects>
        <_>
          6 0 32 2 -1.</_>
        <_>
          6 0 16 1 2.</_>
        <_>
          22 1 16 1 2.</_></rects>
      <tilted>0</tilted></_>
    <_>
      <rects>
        <_>
          6 0 35 21 -1.</_>
        <_>
          6 7 35 7 3.</_></rects>
      <tilted>0</tilted></_>
    <_>
      <rects>
        <_>
          6 12 36 2 -1.</_>
        <_>
          24 12 18 2 2.</_></rects>
      <tilted>0</tilted></_>
    <_>
      <rects>
        <_>
          7 1 20 18 -1.</_>
        <_>
          7 7 20 6 3.</_></rects>
      <tilted>0</tilted></_>
    <_>
      <rects>
        <_>
          7 7 34 16 -1.</_>
        <_>
          7 7 17 8 2.</_>
        <_>
          24 15 17 8 2.</_></rects>
      <tilted>0</tilted></_>
    <_>
      <rects>
        <_>
          7 8 20 10 -1.</_>
        <_>
          17 8 10 10 2.</_></rects>
      <tilted>0</tilted></_>
    <_>
      <rects>
        <_>
          7 26 29 4 -1.</_>
        <_>
          7 28 29 2 2.</_></rects>
      <tilted>0</tilted></_>
    <_>
      <rects>
        <_>
          9 0 34 2 -1.</_>
        <_>
          9 0 17 1 2.</_>
        <_>
          26 1 17 1 2.</_></rects>
      <tilted>0</tilted></_>
    <_>
      <rects>
        <_>
          9 1 22 18 -1.</_>
        <_>
          9 7 22 6 3.</_></rects>
      <tilted>0</tilted></_>
    <_>
      <rects>
        <_>
          9 10 22 3 -1.</_>
        <_>
          20 10 11 3 2.</_></rects>
      <tilted>0</tilted></_>
    <_>
      <rects>
        <_>
          9 11 17 16 -1.</_>
        <_>
          9 19 17 8 2.</_></rects>
      <tilted>0</tilted></_>
    <_>
      <rects>
        <_>
          9 23 36 6 -1.</_>
        <_>
          9 26 36 3 2.</_></rects>
      <tilted>0</tilted></_>
    <_>
      <rects>
        <_>
          10 4 18 18 -1.</_>
        <_>
          10 4 9 9 2.</_>
        <_>
          19 13 9 9 2.</_></rects>
      <tilted>0</tilted></_>
    <_>
      <rects>
        <_>
          10 7 14 11 -1.</_>
        <_>
          17 7 7 11 2.</_></rects>
      <tilted>0</tilted></_>
    <_>
      <rects>
        <_>
          10 8 21 3 -1.</_>
        <_>
          17 8 7 3 3.</_></rects>
      <tilted>0</tilted></_>
    <_>
      <rects>
        <_>
          10 10 20 15 -1.</_>
        <_>
          10 15 20 5 3.</_></rects>
      <tilted>0</tilted></_>
    <_>
      <rects>
        <_>
          10 12 17 14 -1.</_>
        <_>
          10 19 17 7 2.</_></rects>
      <tilted>0</tilted></_>
    <_>
      <rects>
        <_>
          10 21 12 5 -1.</_>
        <_>
          14 21 4 5 3.</_></rects>
      <tilted>0</tilted></_>
    <_>
      <rects>
        <_>
          10 22 18 8 -1.</_>
        <_>
          10 22 9 4 2.</_>
        <_>
          19 26 9 4 2.</_></rects>
      <tilted>0</tilted></_>
    <_>
      <rects>
        <_>
          11 7 15 18 -1.</_>
        <_>
          16 7 5 18 3.</_></rects>
      <tilted>0</tilted></_>
    <_>
      <rects>
        <_>
          11 7 30 12 -1.</_>
        <_>
          26 7 15 12 2.</_></rects>
      <tilted>0</tilted></_>
    <_>
      <rects>
        <_>
          11 8 21 4 -1.</_>
        <_>
          11 10 21 2 2.</_></rects>
      <tilted>0</tilted></_>
    <_>
      <rects>
        <_>
          11 9 18 2 -1.</_>
        <_>
          17 9 6 2 3.</_></rects>
      <tilted>0</tilted></_>
    <_>
      <rects>
        <_>
          11 16 9 6 -1.</_>
        <_>
          11 18 9 2 3.</_></rects>
      <tilted>0</tilted></_>
    <_>
      <rects>
        <_>
          12 7 10 2 -1.</_>
        <_>
          17 7 5 2 2.</_></rects>
      <tilted>0</tilted></_>
    <_>
      <rects>
        <_>
          12 10 12 7 -1.</_>
        <_>
          18 10 6 7 2.</_></rects>
      <tilted>0</tilted></_>
    <_>
      <rects>
        <_>
          12 10 28 12 -1.</_>
        <_>
          26 10 14 12 2.</_></rects>
      <tilted>0</tilted></_>
    <_>
      <rects>
        <_>
          12 11 26 2 -1.</_>
        <_>
          25 11 13 2 2.</_></rects>
      <tilted>0</tilted></_>
    <_>
      <rects>
        <_>
          12 18 15 12 -1.</_>
        <_>
          12 22 15 4 3.</_></rects>
      <tilted>0</tilted></_>
    <_>
      <rects>
        <_>
          12 21 10 6 -1.</_>
        <_>
          12 24 10 3 2.</_></rects>
      <tilted>0</tilted></_>
    <_>
      <rects>
        <_>
          12 26 24 2 -1.</_>
        <_>
          24 26 12 2 2.</_></rects>
      <tilted>0</tilted></_>
    <_>
      <rects>
        <_>
          13 1 20 2 -1.</_>
        <_>
          13 1 10 1 2.</_>
        <_>
          23 2 10 1 2.</_></rects>
      <tilted>0</tilted></_>
    <_>
      <rects>
        <_>
          13 6 13 16 -1.</_>
        <_>
          13 14 13 8 2.</_></rects>
      <tilted>0</tilted></_>
    <_>
      <rects>
        <_>
          13 6 22 15 -1.</_>
        <_>
          13 11 22 5 3.</_></rects>
      <tilted>0</tilted></_>
    <_>
      <rects>
        <_>
          13 22 12 5 -1.</_>
        <_>
          17 22 4 5 3.</_></rects>
      <tilted>0</tilted></_>
    <_>
      <rects>
        <_>
          13 23 12 4 -1.</_>
        <_>
          17 23 4 4 3.</_></rects>
      <tilted>0</tilted></_>
    <_>
      <rects>
        <_>
          13 24 34 4 -1.</_>
        <_>
          13 24 17 2 2.</_>
        <_>
          30 26 17 2 2.</_></rects>
      <tilted>0</tilted></_>
    <_>
      <rects>
        <_>
          13 24 20 6 -1.</_>
        <_>
          13 27 20 3 2.</_></rects>
      <tilted>0</tilted></_>
    <_>
      <rects>
        <_>
          14 0 16 18 -1.</_>
        <_>
          14 6 16 6 3.</_></rects>
      <tilted>0</tilted></_>
    <_>
      <rects>
        <_>
          14 0 27 8 -1.</_>
        <_>
          14 4 27 4 2.</_></rects>
      <tilted>0</tilted></_>
    <_>
      <rects>
        <_>
          14 1 20 2 -1.</_>
        <_>
          14 1 10 1 2.</_>
        <_>
          24 2 10 1 2.</_></rects>
      <tilted>0</tilted></_>
    <_>
      <rects>
        <_>
          14 8 6 6 -1.</_>
        <_>
          16 8 2 6 3.</_></rects>
      <tilted>0</tilted></_>
    <_>
      <rects>
        <_>
          14 26 20 4 -1.</_>
        <_>
          14 26 10 2 2.</_>
        <_>
          24 28 10 2 2.</_></rects>
      <tilted>0</tilted></_>
    <_>
      <rects>
        <_>
          15 0 15 6 -1.</_>
        <_>
          15 3 15 3 2.</_></rects>
      <tilted>0</tilted></_>
    <_>
      <rects>
        <_>
          15 0 26 10 -1.</_>
        <_>
          15 5 26 5 2.</_></rects>
      <tilted>0</tilted></_>
    <_>
      <rects>
        <_>
          15 8 16 18 -1.</_>
        <_>
          15 8 8 9 2.</_>
        <_>
          23 17 8 9 2.</_></rects>
      <tilted>0</tilted></_>
    <_>
      <rects>
        <_>
          15 24 8 6 -1.</_>
        <_>
          15 26 8 2 3.</_></rects>
      <tilted>0</tilted></_>
    <_>
      <rects>
        <_>
          16 4 24 25 -1.</_>
        <_>
          24 4 8 25 3.</_></rects>
      <tilted>0</tilted></_>
    <_>
      <rects>
        <_>
          16 6 8 18 -1.</_>
        <_>
          16 6 4 9 2.</_>
        <_>
          20 15 4 9 2.</_></rects>
      <tilted>0</tilted></_>
    <_>
      <rects>
        <_>
          16 6 10 14 -1.</_>
        <_>
          16 6 5 7 2.</_>
        <_>
          21 13 5 7 2.</_></rects>
      <tilted>0</tilted></_>
    <_>
      <rects>
        <_>
          16 7 5 9 -1.</_>
        <_>
          16 10 5 3 3.</_></rects>
      <tilted>0</tilted></_>
    <_>
      <rects>
        <_>
          16 8 16 18 -1.</_>
        <_>
          16 8 8 9 2.</_>
        <_>
          24 17 8 9 2.</_></rects>
      <tilted>0</tilted></_>
    <_>
      <rects>
        <_>
          16 9 21 4 -1.</_>
        <_>
          23 9 7 4 3.</_></rects>
      <tilted>0</tilted></_>
    <_>
      <rects>
        <_>
          16 11 6 14 -1.</_>
        <_>
          16 11 3 7 2.</_>
        <_>
          19 18 3 7 2.</_></rects>
      <tilted>0</tilted></_>
    <_>
      <rects>
        <_>
          17 7 1 8 -1.</_>
        <_>
          17 11 1 4 2.</_></rects>
      <tilted>0</tilted></_>
    <_>
      <rects>
        <_>
          17 8 9 5 -1.</_>
        <_>
          20 8 3 5 3.</_></rects>
      <tilted>0</tilted></_>
    <_>
      <rects>
        <_>
          17 12 9 3 -1.</_>
        <_>
          20 12 3 3 3.</_></rects>
      <tilted>0</tilted></_>
    <_>
      <rects>
        <_>
          17 22 4 1 -1.</_>
        <_>
          19 22 2 1 2.</_></rects>
      <tilted>0</tilted></_>
    <_>
      <rects>
        <_>
          18 0 24 27 -1.</_>
        <_>
          26 0 8 27 3.</_></rects>
      <tilted>0</tilted></_>
    <_>
      <rects>
        <_>
          18 0 13 6 -1.</_>
        <_>
          18 3 13 3 2.</_></rects>
      <tilted>0</tilted></_>
    <_>
      <rects>
        <_>
          18 5 13 22 -1.</_>
        <_>
          18 16 13 11 2.</_></rects>
      <tilted>0</tilted></_>
    <_>
      <rects>
        <_>
          18 7 18 7 -1.</_>
        <_>
          24 7 6 7 3.</_></rects>
      <tilted>0</tilted></_>
    <_>
      <rects>
        <_>
          18 7 21 17 -1.</_>
        <_>
          25 7 7 17 3.</_></rects>
      <tilted>0</tilted></_>
    <_>
      <rects>
        <_>
          18 8 9 5 -1.</_>
        <_>
          21 8 3 5 3.</_></rects>
      <tilted>0</tilted></_>
    <_>
      <rects>
        <_>
          18 20 4 6 -1.</_>
        <_>
          18 22 4 2 3.</_></rects>
      <tilted>0</tilted></_>
    <_>
      <rects>
        <_>
          18 20 23 9 -1.</_>
        <_>
          18 23 23 3 3.</_></rects>
      <tilted>0</tilted></_>
    <_>
      <rects>
        <_>
          19 2 25 4 -1.</_>
        <_>
          19 4 25 2 2.</_></rects>
      <tilted>0</tilted></_>
    <_>
      <rects>
        <_>
          19 3 21 26 -1.</_>
        <_>
          26 3 7 26 3.</_></rects>
      <tilted>0</tilted></_>
    <_>
      <rects>
        <_>
          19 5 2 18 -1.</_>
        <_>
          19 11 2 6 3.</_></rects>
      <tilted>0</tilted></_>
    <_>
      <rects>
        <_>
          19 5 12 22 -1.</_>
        <_>
          19 16 12 11 2.</_></rects>
      <tilted>0</tilted></_>
    <_>
      <rects>
        <_>
          19 6 3 16 -1.</_>
        <_>
          19 14 3 8 2.</_></rects>
      <tilted>0</tilted></_>
    <_>
      <rects>
        <_>
          19 6 6 9 -1.</_>
        <_>
          19 9 6 3 3.</_></rects>
      <tilted>0</tilted></_>
    <_>
      <rects>
        <_>
          19 6 8 4 -1.</_>
        <_>
          19 8 8 2 2.</_></rects>
      <tilted>0</tilted></_>
    <_>
      <rects>
        <_>
          19 7 10 10 -1.</_>
        <_>
          19 12 10 5 2.</_></rects>
      <tilted>0</tilted></_>
    <_>
      <rects>
        <_>
          19 21 12 2 -1.</_>
        <_>
          25 21 6 2 2.</_></rects>
      <tilted>0</tilted></_>
    <_>
      <rects>
        <_>
          19 23 18 4 -1.</_>
        <_>
          25 23 6 4 3.</_></rects>
      <tilted>0</tilted></_>
    <_>
      <rects>
        <_>
          19 24 12 6 -1.</_>
        <_>
          19 27 12 3 2.</_></rects>
      <tilted>0</tilted></_>
    <_>
      <rects>
        <_>
          20 0 4 6 -1.</_>
        <_>
          20 3 4 3 2.</_></rects>
      <tilted>0</tilted></_>
    <_>
      <rects>
        <_>
          20 10 6 10 -1.</_>
        <_>
          20 15 6 5 2.</_></rects>
      <tilted>0</tilted></_>
    <_>
      <rects>
        <_>
          20 15 18 12 -1.</_>
        <_>
          26 15 6 12 3.</_></rects>
      <tilted>0</tilted></_>
    <_>
      <rects>
        <_>
          21 8 9 9 -1.</_>
        <_>
          21 11 9 3 3.</_></rects>
      <tilted>0</tilted></_>
    <_>
      <rects>
        <_>
          21 11 6 9 -1.</_>
        <_>
          23 11 2 9 3.</_></rects>
      <tilted>0</tilted></_>
    <_>
      <rects>
        <_>
          21 12 6 8 -1.</_>
        <_>
          21 16 6 4 2.</_></rects>
      <tilted>0</tilted></_>
    <_>
      <rects>
        <_>
          21 20 12 2 -1.</_>
        <_>
          27 20 6 2 2.</_></rects>
      <tilted>0</tilted></_>
    <_>
      <rects>
        <_>
          22 1 12 12 -1.</_>
        <_>
          28 1 6 12 2.</_></rects>
      <tilted>0</tilted></_>
    <_>
      <rects>
        <_>
          22 10 3 4 -1.</_>
        <_>
          22 12 3 2 2.</_></rects>
      <tilted>0</tilted></_>
    <_>
      <rects>
        <_>
          22 18 7 12 -1.</_>
        <_>
          22 22 7 4 3.</_></rects>
      <tilted>0</tilted></_>
    <_>
      <rects>
        <_>
          23 0 5 8 -1.</_>
        <_>
          23 4 5 4 2.</_></rects>
      <tilted>0</tilted></_>
    <_>
      <rects>
        <_>
          23 1 21 9 -1.</_>
        <_>
          23 4 21 3 3.</_></rects>
      <tilted>0</tilted></_>
    <_>
      <rects>
        <_>
          23 4 2 12 -1.</_>
        <_>
          23 8 2 4 3.</_></rects>
      <tilted>0</tilted></_>
    <_>
      <rects>
        <_>
          23 6 6 12 -1.</_>
        <_>
          23 12 6 6 2.</_></rects>
      <tilted>0</tilted></_>
    <_>
      <rects>
        <_>
          23 8 20 18 -1.</_>
        <_>
          23 8 10 9 2.</_>
        <_>
          33 17 10 9 2.</_></rects>
      <tilted>0</tilted></_>
    <_>
      <rects>
        <_>
          23 12 6 8 -1.</_>
        <_>
          23 16 6 4 2.</_></rects>
      <tilted>0</tilted></_>
    <_>
      <rects>
        <_>
          23 17 10 4 -1.</_>
        <_>
          28 17 5 4 2.</_></rects>
      <tilted>0</tilted></_>
    <_>
      <rects>
        <_>
          23 19 8 3 -1.</_>
        <_>
          27 19 4 3 2.</_></rects>
      <tilted>0</tilted></_>
    <_>
      <rects>
        <_>
          24 4 17 9 -1.</_>
        <_>
          24 7 17 3 3.</_></rects>
      <tilted>0</tilted></_>
    <_>
      <rects>
        <_>
          24 7 3 4 -1.</_>
        <_>
          24 9 3 2 2.</_></rects>
      <tilted>0</tilted></_>
    <_>
      <rects>
        <_>
          24 10 18 4 -1.</_>
        <_>
          30 10 6 4 3.</_></rects>
      <tilted>0</tilted></_>
    <_>
      <rects>
        <_>
          24 10 18 5 -1.</_>
        <_>
          30 10 6 5 3.</_></rects>
      <tilted>0</tilted></_>
    <_>
      <rects>
        <_>
          24 10 16 18 -1.</_>
        <_>
          24 10 8 9 2.</_>
        <_>
          32 19 8 9 2.</_></rects>
      <tilted>0</tilted></_>
    <_>
      <rects>
        <_>
          24 19 6 5 -1.</_>
        <_>
          27 19 3 5 2.</_></rects>
      <tilted>0</tilted></_>
    <_>
      <rects>
        <_>
          25 17 6 3 -1.</_>
        <_>
          25 18 6 1 3.</_></rects>
      <tilted>0</tilted></_>
    <_>
      <rects>
        <_>
          26 23 10 4 -1.</_>
        <_>
          26 25 10 2 2.</_></rects>
      <tilted>0</tilted></_>
    <_>
      <rects>
        <_>
          27 13 12 1 -1.</_>
        <_>
          31 13 4 1 3.</_></rects>
      <tilted>0</tilted></_>
    <_>
      <rects>
        <_>
          28 23 10 6 -1.</_>
        <_>
          28 26 10 3 2.</_></rects>
      <tilted>0</tilted></_>
    <_>
      <rects>
        <_>
          29 11 4 4 -1.</_>
        <_>
          29 13 4 2 2.</_></rects>
      <tilted>0</tilted></_>
    <_>
      <rects>
        <_>
          29 20 12 3 -1.</_>
        <_>
          33 20 4 3 3.</_></rects>
      <tilted>0</tilted></_>
    <_>
      <rects>
        <_>
          29 22 14 6 -1.</_>
        <_>
          29 24 14 2 3.</_></rects>
      <tilted>0</tilted></_>
    <_>
      <rects>
        <_>
          31 20 10 3 -1.</_>
        <_>
          31 21 10 1 3.</_></rects>
      <tilted>0</tilted></_>
    <_>
      <rects>
        <_>
          32 11 9 3 -1.</_>
        <_>
          35 11 3 3 3.</_></rects>
      <tilted>0</tilted></_>
    <_>
      <rects>
        <_>
          33 10 15 9 -1.</_>
        <_>
          38 10 5 9 3.</_></rects>
      <tilted>0</tilted></_>
    <_>
      <rects>
        <_>
          33 13 9 2 -1.</_>
        <_>
          36 13 3 2 3.</_></rects>
      <tilted>0</tilted></_>
    <_>
      <rects>
        <_>
          40 8 6 18 -1.</_>
        <_>
          43 8 3 18 2.</_></rects>
      <tilted>0</tilted></_>
    <_>
      <rects>
        <_>
          40 9 8 13 -1.</_>
        <_>
          44 9 4 13 2.</_></rects>
      <tilted>0</tilted></_>
    <_>
      <rects>
        <_>
          41 3 6 23 -1.</_>
        <_>
          44 3 3 23 2.</_></rects>
      <tilted>0</tilted></_></features></cascade>
</opencv_storage>
