<?xml version="1.0"?>
<opencv_storage>
<stage4>
  <maxWeakCount>5</maxWeakCount>
  <stageThreshold>-6.7564445734024048e-01</stageThreshold>
  <weakClassifiers>
    <_>
      <internalNodes>
        0 -1 963038 -3.3167621586471796e-04</internalNodes>
      <leafValues>
        -8.6851209402084351e-01 6.2014865875244141e-01</leafValues></_>
    <_>
      <internalNodes>
        0 -1 1007030 -5.9082685038447380e-04</internalNodes>
      <leafValues>
        8.3909213542938232e-01 -4.1654029488563538e-01</leafValues></_>
    <_>
      <internalNodes>
        0 -1 879091 1.7614521493669599e-04</internalNodes>
      <leafValues>
        5.3799659013748169e-01 -7.3694109916687012e-01</leafValues></_>
    <_>
      <internalNodes>
        0 -1 1006985 -1.3610459864139557e-03</internalNodes>
      <leafValues>
        6.4013439416885376e-01 -6.3420289754867554e-01</leafValues></_>
    <_>
      <internalNodes>
        0 -1 98892 4.2548077180981636e-03</internalNodes>
      <leafValues>
        -7.8304648399353027e-01 4.8124817013740540e-01</leafValues></_></weakClassifiers></stage4>
</opencv_storage>
