<?xml version="1.0"?>
<opencv_storage>
<stage15>
  <maxWeakCount>8</maxWeakCount>
  <stageThreshold>-4.9489599466323853e-01</stageThreshold>
  <weakClassifiers>
    <_>
      <internalNodes>
        0 -1 902679 -3.1473266426473856e-03</internalNodes>
      <leafValues>
        -8.0000001192092896e-01 4.7819548845291138e-01</leafValues></_>
    <_>
      <internalNodes>
        0 -1 733426 -8.4380293264985085e-03</internalNodes>
      <leafValues>
        6.8647867441177368e-01 -2.1925108134746552e-01</leafValues></_>
    <_>
      <internalNodes>
        0 -1 161791 1.3526301831007004e-02</internalNodes>
      <leafValues>
        -3.5136085748672485e-01 5.1949691772460938e-01</leafValues></_>
    <_>
      <internalNodes>
        0 -1 746884 2.5906409136950970e-03</internalNodes>
      <leafValues>
        -2.4176827073097229e-01 6.2914359569549561e-01</leafValues></_>
    <_>
      <internalNodes>
        0 -1 570318 1.5946970088407397e-03</internalNodes>
      <leafValues>
        2.3511599004268646e-01 -6.9858753681182861e-01</leafValues></_>
    <_>
      <internalNodes>
        0 -1 791044 -1.2234889436513186e-03</internalNodes>
      <leafValues>
        6.6061270236968994e-01 -2.3874814808368683e-01</leafValues></_>
    <_>
      <internalNodes>
        0 -1 457482 -1.1504678986966610e-02</internalNodes>
      <leafValues>
        6.2538027763366699e-01 -2.0291005074977875e-01</leafValues></_>
    <_>
      <internalNodes>
        0 -1 259825 -6.2031866982579231e-03</internalNodes>
      <leafValues>
        -4.7279930114746094e-01 4.5316860079765320e-01</leafValues></_></weakClassifiers></stage15>
</opencv_storage>
