<?xml version="1.0"?>
<opencv_storage>
<stage11>
  <maxWeakCount>8</maxWeakCount>
  <stageThreshold>-4.7021245956420898e-01</stageThreshold>
  <weakClassifiers>
    <_>
      <internalNodes>
        0 -1 483082 4.0777601301670074e-02</internalNodes>
      <leafValues>
        4.7988077998161316e-01 -9.1139239072799683e-01</leafValues></_>
    <_>
      <internalNodes>
        0 -1 598565 -1.6721700085327029e-03</internalNodes>
      <leafValues>
        -8.1325745582580566e-01 2.4444614350795746e-01</leafValues></_>
    <_>
      <internalNodes>
        0 -1 531993 -7.3198765516281128e-02</internalNodes>
      <leafValues>
        6.9588214159011841e-01 -2.9627782106399536e-01</leafValues></_>
    <_>
      <internalNodes>
        0 -1 361023 -1.6681738197803497e-02</internalNodes>
      <leafValues>
        6.0712385177612305e-01 -2.1468150615692139e-01</leafValues></_>
    <_>
      <internalNodes>
        0 -1 701483 1.4701060717925429e-03</internalNodes>
      <leafValues>
        -5.2618259191513062e-01 3.5657024383544922e-01</leafValues></_>
    <_>
      <internalNodes>
        0 -1 623927 -3.3838566392660141e-02</internalNodes>
      <leafValues>
        -7.9576355218887329e-01 2.1123565733432770e-01</leafValues></_>
    <_>
      <internalNodes>
        0 -1 741058 1.7868381110019982e-04</internalNodes>
      <leafValues>
        2.4416077136993408e-01 -5.7642596960067749e-01</leafValues></_>
    <_>
      <internalNodes>
        0 -1 482742 1.7894245684146881e-03</internalNodes>
      <leafValues>
        -4.6831673383712769e-01 3.9420527219772339e-01</leafValues></_></weakClassifiers></stage11>
</opencv_storage>
