<?xml version="1.0"?>
<opencv_storage>
<stage3>
  <maxWeakCount>7</maxWeakCount>
  <stageThreshold>-4.0848043560981750e-01</stageThreshold>
  <weakClassifiers>
    <_>
      <internalNodes>
        0 -1 498827 -4.8186164349317551e-03</internalNodes>
      <leafValues>
        -8.0310881137847900e-01 5.0114768743515015e-01</leafValues></_>
    <_>
      <internalNodes>
        0 -1 499972 2.4249693378806114e-02</internalNodes>
      <leafValues>
        -2.4607881903648376e-01 7.3029422760009766e-01</leafValues></_>
    <_>
      <internalNodes>
        0 -1 531629 2.3233808577060699e-02</internalNodes>
      <leafValues>
        -2.5118386745452881e-01 8.4169018268585205e-01</leafValues></_>
    <_>
      <internalNodes>
        0 -1 698812 -2.3144104052335024e-03</internalNodes>
      <leafValues>
        -8.1064623594284058e-01 2.9427498579025269e-01</leafValues></_>
    <_>
      <internalNodes>
        0 -1 235466 5.8952663093805313e-03</internalNodes>
      <leafValues>
        -3.0351692438125610e-01 7.2044110298156738e-01</leafValues></_>
    <_>
      <internalNodes>
        0 -1 343258 -3.7021827884018421e-03</internalNodes>
      <leafValues>
        6.7073178291320801e-01 -3.2226619124412537e-01</leafValues></_>
    <_>
      <internalNodes>
        0 -1 750419 -1.6811206005513668e-03</internalNodes>
      <leafValues>
        2.4702610075473785e-01 -8.9894688129425049e-01</leafValues></_></weakClassifiers></stage3>
</opencv_storage>
