<?xml version="1.0"?>
<opencv_storage>
<stage5>
  <maxWeakCount>6</maxWeakCount>
  <stageThreshold>-3.8093112409114838e-02</stageThreshold>
  <weakClassifiers>
    <_>
      <internalNodes>
        0 -1 793775 -1.1271911207586527e-03</internalNodes>
      <leafValues>
        6.5051901340484619e-01 -7.3255813121795654e-01</leafValues></_>
    <_>
      <internalNodes>
        0 -1 454415 -9.9840038456022739e-04</internalNodes>
      <leafValues>
        -9.8078989982604980e-01 3.8661223649978638e-01</leafValues></_>
    <_>
      <internalNodes>
        0 -1 30384 1.3857901096343994e-02</internalNodes>
      <leafValues>
        -4.7200021147727966e-01 8.2950502634048462e-01</leafValues></_>
    <_>
      <internalNodes>
        0 -1 702743 -8.9709210442379117e-05</internalNodes>
      <leafValues>
        4.7252130508422852e-01 -7.7790516614913940e-01</leafValues></_>
    <_>
      <internalNodes>
        0 -1 342951 5.6311264634132385e-03</internalNodes>
      <leafValues>
        -5.9347432851791382e-01 6.1714005470275879e-01</leafValues></_>
    <_>
      <internalNodes>
        0 -1 205001 -1.1157801374793053e-02</internalNodes>
      <leafValues>
        9.2683851718902588e-01 -4.4245907664299011e-01</leafValues></_></weakClassifiers></stage5>
</opencv_storage>
