<?xml version="1.0"?>
<opencv_storage>
<stage6>
  <maxWeakCount>8</maxWeakCount>
  <stageThreshold>-6.3905978202819824e-01</stageThreshold>
  <weakClassifiers>
    <_>
      <internalNodes>
        0 -1 858264 -1.8122262554243207e-03</internalNodes>
      <leafValues>
        -9.0666669607162476e-01 4.7111111879348755e-01</leafValues></_>
    <_>
      <internalNodes>
        0 -1 621603 2.9444124549627304e-02</internalNodes>
      <leafValues>
        2.2923271358013153e-01 -9.5799183845520020e-01</leafValues></_>
    <_>
      <internalNodes>
        0 -1 124081 -5.3723089396953583e-02</internalNodes>
      <leafValues>
        7.2628295421600342e-01 -3.2068276405334473e-01</leafValues></_>
    <_>
      <internalNodes>
        0 -1 636331 1.5050691552460194e-02</internalNodes>
      <leafValues>
        -2.9757103323936462e-01 5.8036816120147705e-01</leafValues></_>
    <_>
      <internalNodes>
        0 -1 982111 1.7712580040097237e-02</internalNodes>
      <leafValues>
        -2.3530687391757965e-01 7.5162702798843384e-01</leafValues></_>
    <_>
      <internalNodes>
        0 -1 735628 8.9482199400663376e-03</internalNodes>
      <leafValues>
        -3.8986793160438538e-01 4.5645543932914734e-01</leafValues></_>
    <_>
      <internalNodes>
        0 -1 772397 -1.2245040852576494e-03</internalNodes>
      <leafValues>
        2.3546731472015381e-01 -6.9029062986373901e-01</leafValues></_>
    <_>
      <internalNodes>
        0 -1 661257 -7.0067783817648888e-03</internalNodes>
      <leafValues>
        -8.0335003137588501e-01 1.6839627921581268e-01</leafValues></_></weakClassifiers></stage6>
</opencv_storage>
