<?xml version="1.0"?>
<opencv_storage>
<stage4>
  <maxWeakCount>8</maxWeakCount>
  <stageThreshold>-9.0496098995208740e-01</stageThreshold>
  <weakClassifiers>
    <_>
      <internalNodes>
        0 -1 712703 -3.9958819746971130e-02</internalNodes>
      <leafValues>
        -7.7528089284896851e-01 4.8260211944580078e-01</leafValues></_>
    <_>
      <internalNodes>
        0 -1 644057 5.0632366910576820e-03</internalNodes>
      <leafValues>
        2.2294576466083527e-01 -8.6243164539337158e-01</leafValues></_>
    <_>
      <internalNodes>
        0 -1 982464 1.8843593075871468e-02</internalNodes>
      <leafValues>
        -3.2349652051925659e-01 5.9378486871719360e-01</leafValues></_>
    <_>
      <internalNodes>
        0 -1 812615 -1.0552708990871906e-03</internalNodes>
      <leafValues>
        4.5145654678344727e-01 -4.9496328830718994e-01</leafValues></_>
    <_>
      <internalNodes>
        0 -1 503689 -3.1010727398097515e-03</internalNodes>
      <leafValues>
        6.7845159769058228e-01 -2.8096437454223633e-01</leafValues></_>
    <_>
      <internalNodes>
        0 -1 573110 -2.8221256798133254e-04</internalNodes>
      <leafValues>
        -7.3419266939163208e-01 2.6643222570419312e-01</leafValues></_>
    <_>
      <internalNodes>
        0 -1 235068 1.0961201973259449e-02</internalNodes>
      <leafValues>
        -4.2729920148849487e-01 4.7676476836204529e-01</leafValues></_>
    <_>
      <internalNodes>
        0 -1 21605 2.4204041808843613e-02</internalNodes>
      <leafValues>
        -2.1126011013984680e-01 8.4441339969635010e-01</leafValues></_></weakClassifiers></stage4>
</opencv_storage>
