<?xml version="1.0"?>
<opencv_storage>
<stage3>
  <maxWeakCount>5</maxWeakCount>
  <stageThreshold>3.7389168143272400e-01</stageThreshold>
  <weakClassifiers>
    <_>
      <internalNodes>
        0 -1 943629 -7.3735425248742104e-03</internalNodes>
      <leafValues>
        -9.8406374454498291e-01 5.9807848930358887e-01</leafValues></_>
    <_>
      <internalNodes>
        0 -1 145986 -5.7829439640045166e-02</internalNodes>
      <leafValues>
        8.6148625612258911e-01 -4.2661744356155396e-01</leafValues></_>
    <_>
      <internalNodes>
        0 -1 941413 2.9861018992960453e-03</internalNodes>
      <leafValues>
        -5.5125784873962402e-01 8.2858145236968994e-01</leafValues></_>
    <_>
      <internalNodes>
        0 -1 907314 -1.1542776599526405e-02</internalNodes>
      <leafValues>
        5.8034521341323853e-01 -9.1652143001556396e-01</leafValues></_>
    <_>
      <internalNodes>
        0 -1 485035 3.2920204102993011e-04</internalNodes>
      <leafValues>
        3.8210621476173401e-01 -9.6255576610565186e-01</leafValues></_></weakClassifiers></stage3>
</opencv_storage>
