<?xml version="1.0"?>
<opencv_storage>
<stage13>
  <maxWeakCount>8</maxWeakCount>
  <stageThreshold>-5.1442629098892212e-01</stageThreshold>
  <weakClassifiers>
    <_>
      <internalNodes>
        0 -1 568832 -6.8998802453279495e-03</internalNodes>
      <leafValues>
        -8.2550334930419922e-01 4.6113988757133484e-01</leafValues></_>
    <_>
      <internalNodes>
        0 -1 306702 1.0155607014894485e-02</internalNodes>
      <leafValues>
        -2.2945708036422729e-01 7.0828688144683838e-01</leafValues></_>
    <_>
      <internalNodes>
        0 -1 847733 -7.4428571388125420e-03</internalNodes>
      <leafValues>
        5.5058461427688599e-01 -3.4227824211120605e-01</leafValues></_>
    <_>
      <internalNodes>
        0 -1 397137 -2.3944951593875885e-02</internalNodes>
      <leafValues>
        5.1546871662139893e-01 -3.7090486288070679e-01</leafValues></_>
    <_>
      <internalNodes>
        0 -1 557650 5.9034149162471294e-03</internalNodes>
      <leafValues>
        -3.1773298978805542e-01 6.0945886373519897e-01</leafValues></_>
    <_>
      <internalNodes>
        0 -1 384193 -1.9614968914538622e-03</internalNodes>
      <leafValues>
        4.8471164703369141e-01 -3.0721560120582581e-01</leafValues></_>
    <_>
      <internalNodes>
        0 -1 647786 -4.5124540338292718e-04</internalNodes>
      <leafValues>
        -4.6161726117134094e-01 3.9077940583229065e-01</leafValues></_>
    <_>
      <internalNodes>
        0 -1 763008 7.9147386713884771e-05</internalNodes>
      <leafValues>
        2.6171264052391052e-01 -5.5556684732437134e-01</leafValues></_></weakClassifiers></stage13>
</opencv_storage>
