<?xml version="1.0"?>
<opencv_storage>
<stage7>
  <maxWeakCount>9</maxWeakCount>
  <stageThreshold>-7.3284137248992920e-01</stageThreshold>
  <weakClassifiers>
    <_>
      <internalNodes>
        0 -1 766175 5.0380607717670500e-05</internalNodes>
      <leafValues>
        4.6666666865348816e-01 -8.6666667461395264e-01</leafValues></_>
    <_>
      <internalNodes>
        0 -1 662552 1.8024314194917679e-02</internalNodes>
      <leafValues>
        -1.8712276220321655e-01 7.7410703897476196e-01</leafValues></_>
    <_>
      <internalNodes>
        0 -1 21571 5.8385275304317474e-02</internalNodes>
      <leafValues>
        -2.6899176836013794e-01 7.9491460323333740e-01</leafValues></_>
    <_>
      <internalNodes>
        0 -1 610786 3.7349545164033771e-04</internalNodes>
      <leafValues>
        2.5746116042137146e-01 -8.5679316520690918e-01</leafValues></_>
    <_>
      <internalNodes>
        0 -1 98688 -3.0734110623598099e-02</internalNodes>
      <leafValues>
        7.7488511800765991e-01 -2.4860705435276031e-01</leafValues></_>
    <_>
      <internalNodes>
        0 -1 345653 2.2158667445182800e-02</internalNodes>
      <leafValues>
        -4.2720657587051392e-01 4.4901570677757263e-01</leafValues></_>
    <_>
      <internalNodes>
        0 -1 543927 8.4183542057871819e-03</internalNodes>
      <leafValues>
        1.9512936472892761e-01 -9.1818237304687500e-01</leafValues></_>
    <_>
      <internalNodes>
        0 -1 635932 -3.7529453402385116e-04</internalNodes>
      <leafValues>
        3.5722398757934570e-01 -4.7388285398483276e-01</leafValues></_>
    <_>
      <internalNodes>
        0 -1 862826 5.6023821234703064e-03</internalNodes>
      <leafValues>
        1.9080191850662231e-01 -8.0201560258865356e-01</leafValues></_></weakClassifiers></stage7>
</opencv_storage>
