<?xml version="1.0"?>
<opencv_storage>
<stage16>
  <maxWeakCount>7</maxWeakCount>
  <stageThreshold>-3.8749122619628906e-01</stageThreshold>
  <weakClassifiers>
    <_>
      <internalNodes>
        0 -1 916812 9.0131198521703482e-04</internalNodes>
      <leafValues>
        5.4460495710372925e-01 -4.3653249740600586e-01</leafValues></_>
    <_>
      <internalNodes>
        0 -1 603225 -2.2734510712325573e-03</internalNodes>
      <leafValues>
        -9.6051621437072754e-01 2.0428620278835297e-01</leafValues></_>
    <_>
      <internalNodes>
        0 -1 433191 -3.4646326676011086e-03</internalNodes>
      <leafValues>
        7.0060771703720093e-01 -2.5421074032783508e-01</leafValues></_>
    <_>
      <internalNodes>
        0 -1 186213 -3.6828115582466125e-02</internalNodes>
      <leafValues>
        4.3970352411270142e-01 -3.4862053394317627e-01</leafValues></_>
    <_>
      <internalNodes>
        0 -1 459226 -1.0879642795771360e-03</internalNodes>
      <leafValues>
        1.8703989684581757e-01 -8.7082439661026001e-01</leafValues></_>
    <_>
      <internalNodes>
        0 -1 3780 -4.4420190155506134e-02</internalNodes>
      <leafValues>
        7.1760249137878418e-01 -2.6318863034248352e-01</leafValues></_>
    <_>
      <internalNodes>
        0 -1 466564 3.4977219998836517e-02</internalNodes>
      <leafValues>
        -2.2745321691036224e-01 7.9327535629272461e-01</leafValues></_></weakClassifiers></stage16>
</opencv_storage>
